{"type":"NeuralNetwork","sizes":[0,3,12],"layers":[{"weights":[],"biases":[]},{"weights":[[],[],[]],"biases":[1.3877084255218506,1.755469560623169,1.7060801982879639]},{"weights":[[-0.7518978714942932,-1.2003111839294434,-1.1533373594284058],[-1.158143401145935,-1.0530213117599487,-0.990536630153656],[-0.7999923825263977,-1.0285744667053223,-1.0467665195465088],[-0.8882791996002197,-1.1379772424697876,-1.0595941543579102],[-1.0398014783859253,-1.1015281677246094,-0.9678336381912231],[-0.8365764617919922,-1.066937804222107,-1.206555724143982],[-0.9468657970428467,-1.0795377492904663,-0.9553192853927612],[-1.0387722253799438,-1.1386269330978394,-0.8824708461761475],[-0.7971948385238647,-1.2112369537353516,-1.0803111791610718],[-0.8168228268623352,-0.93828946352005,-1.242441177368164],[-0.9509187340736389,-1.0917866230010986,-1.1534148454666138],[-1.1016340255737305,-0.9825451970100403,-1.036680817604065]],"biases":[-1.4755243062973022,-1.4215728044509888,-1.6630908250808716,-1.4993590116500854,-1.4870843887329102,-1.4760913848876953,-1.58500075340271,-1.5296754837036133,-1.4900813102722168,-1.5659440755844116,-1.4143047332763672,-1.4840309619903564]}],"inputLookup":{},"inputLookupLength":0,"outputLookup":{"0":0,"1":1,"2":2,"3":3,"4":4,"5":5,"6":6,"7":7,"8":8,"9":9,"10":10,"11":11},"outputLookupLength":12,"options":{"inputSize":0,"outputSize":0,"binaryThresh":0.5},"trainOpts":{"activation":"sigmoid","iterations":20000,"errorThresh":0.005,"log":false,"logPeriod":10,"leakyReluAlpha":0.01,"learningRate":0.3,"momentum":0.1,"callbackPeriod":10,"timeout":"Infinity","beta1":0.9,"beta2":0.999,"epsilon":1e-8}}